net
{
     node_size = (0 0);
     name = "acute_respiratory_distress_syndrome";
     UnBBayes_Color_Probabilistic_Description = "-256";
     UnBBayes_Color_Probabilistic_Explanation = "-16711936";
}

node acute_respiratory_distress_syndrome
{
     label = "";
     position = (0 0);
     states = ("da" "ne");
}

node shortness_of_breath
{
     label = "";
     position = (0 0);
     states = ("da" "ne");
}

node difficulty_breathing
{
     label = "";
     position = (0 0);
     states = ("da" "ne");
}

node cough
{
     label = "";
     position = (0 0);
     states = ("da" "ne");
}

node sharp_chest_pain
{
     label = "";
     position = (0 0);
     states = ("da" "ne");
}

node depressive_or_psychotic_symptoms
{
     label = "";
     position = (0 0);
     states = ("da" "ne");
}

node fever
{
     label = "";
     position = (0 0);
     states = ("da" "ne");
}

node wheezing
{
     label = "";
     position = (0 0);
     states = ("da" "ne");
}

node hurts_to_breath
{
     label = "";
     position = (0 0);
     states = ("da" "ne");
}

node chest_tightness
{
     label = "";
     position = (0 0);
     states = ("da" "ne");
}

node chills
{
     label = "";
     position = (0 0);
     states = ("da" "ne");
}

node coughing_up_sputum
{
     label = "";
     position = (0 0);
     states = ("da" "ne");
}

node congestion_in_chest
{
     label = "";
     position = (0 0);
     states = ("da" "ne");
}

potential (acute_respiratory_distress_syndrome)
{
 data = ( 7.0E-4 0.9993 );
}

potential (shortness_of_breath | acute_respiratory_distress_syndrome)
{
 data = (( 0.84 0.16000003 )
( 0.16852598 0.831474 ));
}

potential (difficulty_breathing | acute_respiratory_distress_syndrome)
{
 data = (( 0.72 0.27999997 )
( 0.109721 0.890279 ));
}

potential (cough | acute_respiratory_distress_syndrome)
{
 data = (( 0.45 0.55 )
( 0.082078315 0.91792166 ));
}

potential (sharp_chest_pain | acute_respiratory_distress_syndrome)
{
 data = (( 0.39 0.61 )
( 0.261432 0.738568 ));
}

potential (depressive_or_psychotic_symptoms | acute_respiratory_distress_syndrome)
{
 data = (( 0.35 0.65 )
( 0.0022399998 0.99776 ));
}

potential (fever | acute_respiratory_distress_syndrome)
{
 data = (( 0.32 0.68 )
( 0.11352795 0.88647205 ));
}

potential (wheezing | acute_respiratory_distress_syndrome)
{
 data = (( 0.2 0.8 )
( 0.0 1.0 ));
}

potential (hurts_to_breath | acute_respiratory_distress_syndrome)
{
 data = (( 0.11 0.89 )
( 0.0 1.0 ));
}

potential (chest_tightness | acute_respiratory_distress_syndrome)
{
 data = (( 0.11 0.89 )
( 0.102695994 0.897304 ));
}

potential (chills | acute_respiratory_distress_syndrome)
{
 data = (( 0.09 0.90999997 )
( 0.0 1.0 ));
}

potential (coughing_up_sputum | acute_respiratory_distress_syndrome)
{
 data = (( 0.09 0.90999997 )
( 0.0045609996 0.995439 ));
}

potential (congestion_in_chest | acute_respiratory_distress_syndrome)
{
 data = (( 0.09 0.90999997 )
( 0.0 1.0 ));
}

