net
{
     node_size = (0 0);
     name = "bronchiectasis";
     UnBBayes_Color_Probabilistic_Description = "-256";
     UnBBayes_Color_Probabilistic_Explanation = "-16711936";
}

node bronchiectasis
{
     label = "";
     position = (0 0);
     states = ("da" "ne");
}

node cough
{
     label = "";
     position = (0 0);
     states = ("da" "ne");
}

node shortness_of_breath
{
     label = "";
     position = (0 0);
     states = ("da" "ne");
}

node hemoptysis
{
     label = "";
     position = (0 0);
     states = ("da" "ne");
}

node difficulty_breathing
{
     label = "";
     position = (0 0);
     states = ("da" "ne");
}

node coughing_up_sputum
{
     label = "";
     position = (0 0);
     states = ("da" "ne");
}

node nasal_congestion
{
     label = "";
     position = (0 0);
     states = ("da" "ne");
}

node coryza
{
     label = "";
     position = (0 0);
     states = ("da" "ne");
}

node sore_throat
{
     label = "";
     position = (0 0);
     states = ("da" "ne");
}

node fever
{
     label = "";
     position = (0 0);
     states = ("da" "ne");
}

node fatigue
{
     label = "";
     position = (0 0);
     states = ("da" "ne");
}

node drainage_in_throat
{
     label = "";
     position = (0 0);
     states = ("da" "ne");
}

node fluid_retention
{
     label = "";
     position = (0 0);
     states = ("da" "ne");
}

potential (bronchiectasis)
{
 data = ( 0.0013 0.9987 );
}

potential (cough | bronchiectasis)
{
 data = (( 0.74 0.26 )
( 0.08143132 0.9185687 ));
}

potential (shortness_of_breath | bronchiectasis)
{
 data = (( 0.56 0.44 )
( 0.16838598 0.831614 ));
}

potential (hemoptysis | bronchiectasis)
{
 data = (( 0.47 0.53 )
( 8.0000005E-5 0.99992 ));
}

potential (difficulty_breathing | bronchiectasis)
{
 data = (( 0.41 0.59000003 )
( 0.109692 0.890308 ));
}

potential (coughing_up_sputum | bronchiectasis)
{
 data = (( 0.41 0.59000003 )
( 0.0040909993 0.995909 ));
}

potential (nasal_congestion | bronchiectasis)
{
 data = (( 0.34 0.65999997 )
( 0.0 1.0 ));
}

potential (coryza | bronchiectasis)
{
 data = (( 0.34 0.65999997 )
( 0.0 1.0 ));
}

potential (sore_throat | bronchiectasis)
{
 data = (( 0.34 0.65999997 )
( 0.0 1.0 ));
}

potential (fever | bronchiectasis)
{
 data = (( 0.25 0.75 )
( 0.11342695 0.8865731 ));
}

potential (fatigue | bronchiectasis)
{
 data = (( 0.25 0.75 )
( 0.107738 0.892262 ));
}

potential (drainage_in_throat | bronchiectasis)
{
 data = (( 0.25 0.75 )
( 0.0 1.0 ));
}

potential (fluid_retention | bronchiectasis)
{
 data = (( 0.14 0.86 )
( 0.0168 0.9832 ));
}

