net
{
     node_size = (0 0);
     name = "cardiomyopathy";
     UnBBayes_Color_Probabilistic_Description = "-256";
     UnBBayes_Color_Probabilistic_Explanation = "-16711936";
}

node cardiomyopathy
{
     label = "";
     position = (0 0);
     states = ("da" "ne");
}

node shortness_of_breath
{
     label = "";
     position = (0 0);
     states = ("da" "ne");
}

node sharp_chest_pain
{
     label = "";
     position = (0 0);
     states = ("da" "ne");
}

node fatigue
{
     label = "";
     position = (0 0);
     states = ("da" "ne");
}

node peripheral_edema
{
     label = "";
     position = (0 0);
     states = ("da" "ne");
}

node palpitations
{
     label = "";
     position = (0 0);
     states = ("da" "ne");
}

node chest_tightness
{
     label = "";
     position = (0 0);
     states = ("da" "ne");
}

node weight_gain
{
     label = "";
     position = (0 0);
     states = ("da" "ne");
}

node irregular_heartbeat
{
     label = "";
     position = (0 0);
     states = ("da" "ne");
}

node heartburn
{
     label = "";
     position = (0 0);
     states = ("da" "ne");
}

node excessive_urination_at_night
{
     label = "";
     position = (0 0);
     states = ("da" "ne");
}

node decreased_heart_rate
{
     label = "";
     position = (0 0);
     states = ("da" "ne");
}

node muscle_weakness
{
     label = "";
     position = (0 0);
     states = ("da" "ne");
}

potential (cardiomyopathy)
{
 data = ( 0.002 0.998 );
}

potential (shortness_of_breath | cardiomyopathy)
{
 data = (( 0.53 0.47000003 )
( 0.16805398 0.831946 ));
}

potential (sharp_chest_pain | cardiomyopathy)
{
 data = (( 0.39 0.61 )
( 0.26092497 0.73907506 ));
}

potential (fatigue | cardiomyopathy)
{
 data = (( 0.27 0.73 )
( 0.107523 0.892477 ));
}

potential (peripheral_edema | cardiomyopathy)
{
 data = (( 0.16 0.84000003 )
( 0.009278 0.990722 ));
}

potential (palpitations | cardiomyopathy)
{
 data = (( 0.13 0.87 )
( 0.124331996 0.875668 ));
}

potential (chest_tightness | cardiomyopathy)
{
 data = (( 0.13 0.87 )
( 0.102513 0.897487 ));
}

potential (weight_gain | cardiomyopathy)
{
 data = (( 0.09 0.90999997 )
( 0.0044000004 0.9956 ));
}

potential (irregular_heartbeat | cardiomyopathy)
{
 data = (( 0.09 0.90999997 )
( 7.04E-4 0.999296 ));
}

potential (heartburn | cardiomyopathy)
{
 data = (( 0.06 0.94 )
( 0.0999 0.9001 ));
}

potential (excessive_urination_at_night | cardiomyopathy)
{
 data = (( 0.02 0.98 )
( 0.0 1.0 ));
}

potential (decreased_heart_rate | cardiomyopathy)
{
 data = (( 0.02 0.98 )
( 0.0 1.0 ));
}

potential (muscle_weakness | cardiomyopathy)
{
 data = (( 0.02 0.98 )
( 0.0 1.0 ));
}

