net
{
     node_size = (0 0);
     name = "chronic_constipation";
     UnBBayes_Color_Probabilistic_Description = "-256";
     UnBBayes_Color_Probabilistic_Explanation = "-16711936";
}

node chronic_constipation
{
     label = "";
     position = (0 0);
     states = ("da" "ne");
}

node constipation
{
     label = "";
     position = (0 0);
     states = ("da" "ne");
}

node sharp_abdominal_pain
{
     label = "";
     position = (0 0);
     states = ("da" "ne");
}

node burning_abdominal_pain
{
     label = "";
     position = (0 0);
     states = ("da" "ne");
}

node vomiting
{
     label = "";
     position = (0 0);
     states = ("da" "ne");
}

node nausea
{
     label = "";
     position = (0 0);
     states = ("da" "ne");
}

node lower_abdominal_pain
{
     label = "";
     position = (0 0);
     states = ("da" "ne");
}

node rectal_bleeding
{
     label = "";
     position = (0 0);
     states = ("da" "ne");
}

node blood_in_stool
{
     label = "";
     position = (0 0);
     states = ("da" "ne");
}

node pain_of_the_anus
{
     label = "";
     position = (0 0);
     states = ("da" "ne");
}

node retention_of_urine
{
     label = "";
     position = (0 0);
     states = ("da" "ne");
}

node stomach_bloating
{
     label = "";
     position = (0 0);
     states = ("da" "ne");
}

node changes_in_stool_appearance
{
     label = "";
     position = (0 0);
     states = ("da" "ne");
}

potential (chronic_constipation)
{
 data = ( 0.15 0.85 );
}

potential (constipation | chronic_constipation)
{
 data = (( 0.87 0.13 )
( 0.0015 0.9985 ));
}

potential (sharp_abdominal_pain | chronic_constipation)
{
 data = (( 0.77 0.23000002 )
( 0.27716902 0.722831 ));
}

potential (burning_abdominal_pain | chronic_constipation)
{
 data = (( 0.37 0.63 )
( 0.066750005 0.93325 ));
}

potential (vomiting | chronic_constipation)
{
 data = (( 0.34 0.65999997 )
( 0.19896664 0.8010334 ));
}

potential (nausea | chronic_constipation)
{
 data = (( 0.29 0.71000004 )
( 0.18133637 0.8186636 ));
}

potential (lower_abdominal_pain | chronic_constipation)
{
 data = (( 0.19 0.81 )
( 0.05375 0.94625 ));
}

potential (rectal_bleeding | chronic_constipation)
{
 data = (( 0.18 0.82 )
( 0.0 1.0 ));
}

potential (blood_in_stool | chronic_constipation)
{
 data = (( 0.17 0.83 )
( 2.7000002E-4 0.99973 ));
}

potential (pain_of_the_anus | chronic_constipation)
{
 data = (( 0.13 0.87 )
( 0.0 1.0 ));
}

potential (retention_of_urine | chronic_constipation)
{
 data = (( 0.11 0.89 )
( 0.055899996 0.9441 ));
}

potential (stomach_bloating | chronic_constipation)
{
 data = (( 0.11 0.89 )
( 0.00123 0.99877 ));
}

potential (changes_in_stool_appearance | chronic_constipation)
{
 data = (( 0.1 0.9 )
( 0.0019999999 0.998 ));
}

