net
{
     node_size = (0 0);
     name = "coagulation_bleeding_disorder";
     UnBBayes_Color_Probabilistic_Description = "-256";
     UnBBayes_Color_Probabilistic_Explanation = "-16711936";
}

node coagulation_bleeding_disorder
{
     label = "";
     position = (0 0);
     states = ("da" "ne");
}

node leg_pain
{
     label = "";
     position = (0 0);
     states = ("da" "ne");
}

node leg_swelling
{
     label = "";
     position = (0 0);
     states = ("da" "ne");
}

node nosebleed
{
     label = "";
     position = (0 0);
     states = ("da" "ne");
}

node blood_in_urine
{
     label = "";
     position = (0 0);
     states = ("da" "ne");
}

node eye_redness
{
     label = "";
     position = (0 0);
     states = ("da" "ne");
}

node melena
{
     label = "";
     position = (0 0);
     states = ("da" "ne");
}

node lymphedema
{
     label = "";
     position = (0 0);
     states = ("da" "ne");
}

node hemoptysis
{
     label = "";
     position = (0 0);
     states = ("da" "ne");
}

node leg_cramps_or_spasms
{
     label = "";
     position = (0 0);
     states = ("da" "ne");
}

node early_or_late_onset_of_menopause
{
     label = "";
     position = (0 0);
     states = ("da" "ne");
}

node knee_swelling
{
     label = "";
     position = (0 0);
     states = ("da" "ne");
}

node vaginal_pain
{
     label = "";
     position = (0 0);
     states = ("da" "ne");
}

potential (coagulation_bleeding_disorder)
{
 data = ( 0.001 0.999 );
}

potential (leg_pain | coagulation_bleeding_disorder)
{
 data = (( 0.3 0.7 )
( 0.0011718121 0.9988282 ));
}

potential (leg_swelling | coagulation_bleeding_disorder)
{
 data = (( 0.17 0.83 )
( 0.0168 0.9832 ));
}

potential (nosebleed | coagulation_bleeding_disorder)
{
 data = (( 0.17 0.83 )
( 0.007999999 0.992 ));
}

potential (blood_in_urine | coagulation_bleeding_disorder)
{
 data = (( 0.17 0.83 )
( 0.07095 0.92904997 ));
}

potential (eye_redness | coagulation_bleeding_disorder)
{
 data = (( 0.11 0.89 )
( 0.0 1.0 ));
}

potential (melena | coagulation_bleeding_disorder)
{
 data = (( 0.08 0.92 )
( 0.005575 0.994425 ));
}

potential (lymphedema | coagulation_bleeding_disorder)
{
 data = (( 0.08 0.92 )
( 4.0000003E-5 0.99996 ));
}

potential (hemoptysis | coagulation_bleeding_disorder)
{
 data = (( 0.08 0.92 )
( 6.11E-4 0.999389 ));
}

potential (leg_cramps_or_spasms | coagulation_bleeding_disorder)
{
 data = (( 0.04 0.96 )
( 1.2000001E-4 0.99988 ));
}

potential (early_or_late_onset_of_menopause | coagulation_bleeding_disorder)
{
 data = (( 0.04 0.96 )
( 0.0 1.0 ));
}

potential (knee_swelling | coagulation_bleeding_disorder)
{
 data = (( 0.04 0.96 )
( 0.0 1.0 ));
}

potential (vaginal_pain | coagulation_bleeding_disorder)
{
 data = (( 0.04 0.96 )
( 0.0 1.0 ));
}

