net
{
     node_size = (0 0);
     name = "gastritis";
     UnBBayes_Color_Probabilistic_Description = "-256";
     UnBBayes_Color_Probabilistic_Explanation = "-16711936";
}

node gastritis
{
     label = "";
     position = (0 0);
     states = ("da" "ne");
}

node sharp_abdominal_pain
{
     label = "";
     position = (0 0);
     states = ("da" "ne");
}

node vomiting
{
     label = "";
     position = (0 0);
     states = ("da" "ne");
}

node nausea
{
     label = "";
     position = (0 0);
     states = ("da" "ne");
}

node burning_abdominal_pain
{
     label = "";
     position = (0 0);
     states = ("da" "ne");
}

node sharp_chest_pain
{
     label = "";
     position = (0 0);
     states = ("da" "ne");
}

node upper_abdominal_pain
{
     label = "";
     position = (0 0);
     states = ("da" "ne");
}

node diarrhea
{
     label = "";
     position = (0 0);
     states = ("da" "ne");
}

node fever
{
     label = "";
     position = (0 0);
     states = ("da" "ne");
}

node headache
{
     label = "";
     position = (0 0);
     states = ("da" "ne");
}

node heartburn
{
     label = "";
     position = (0 0);
     states = ("da" "ne");
}

node vomiting_blood
{
     label = "";
     position = (0 0);
     states = ("da" "ne");
}

node regurgitation
{
     label = "";
     position = (0 0);
     states = ("da" "ne");
}

potential (gastritis)
{
 data = ( 0.045 0.955 );
}

potential (sharp_abdominal_pain | gastritis)
{
 data = (( 0.82 0.18 )
( 0.25335005 0.74665 ));
}

potential (vomiting | gastritis)
{
 data = (( 0.75 0.25 )
( 0.16550465 0.83449537 ));
}

potential (nausea | gastritis)
{
 data = (( 0.65 0.35000002 )
( 0.15251136 0.84748864 ));
}

potential (burning_abdominal_pain | gastritis)
{
 data = (( 0.55 0.45 )
( 0.04212 0.95788 ));
}

potential (sharp_chest_pain | gastritis)
{
 data = (( 0.41 0.59000003 )
( 0.248659 0.751341 ));
}

potential (upper_abdominal_pain | gastritis)
{
 data = (( 0.4 0.6 )
( 0.032735996 0.967264 ));
}

potential (diarrhea | gastritis)
{
 data = (( 0.4 0.6 )
( 0.013533 0.986467 ));
}

potential (fever | gastritis)
{
 data = (( 0.27 0.73 )
( 0.10721295 0.89278704 ));
}

potential (headache | gastritis)
{
 data = (( 0.24 0.76 )
( 0.013826042 0.986174 ));
}

potential (heartburn | gastritis)
{
 data = (( 0.24 0.76 )
( 0.08934001 0.91065997 ));
}

potential (vomiting_blood | gastritis)
{
 data = (( 0.2 0.8 )
( 0.0031549998 0.996845 ));
}

potential (regurgitation | gastritis)
{
 data = (( 0.15 0.85 )
( 0.030915998 0.969084 ));
}

