net
{
     node_size = (0 0);
     name = "gastroesophageal_reflux_disease_gerd";
     UnBBayes_Color_Probabilistic_Description = "-256";
     UnBBayes_Color_Probabilistic_Explanation = "-16711936";
}

node gastroesophageal_reflux_disease_gerd
{
     label = "";
     position = (0 0);
     states = ("da" "ne");
}

node sharp_chest_pain
{
     label = "";
     position = (0 0);
     states = ("da" "ne");
}

node sharp_abdominal_pain
{
     label = "";
     position = (0 0);
     states = ("da" "ne");
}

node vomiting
{
     label = "";
     position = (0 0);
     states = ("da" "ne");
}

node heartburn
{
     label = "";
     position = (0 0);
     states = ("da" "ne");
}

node cough
{
     label = "";
     position = (0 0);
     states = ("da" "ne");
}

node nausea
{
     label = "";
     position = (0 0);
     states = ("da" "ne");
}

node burning_abdominal_pain
{
     label = "";
     position = (0 0);
     states = ("da" "ne");
}

node upper_abdominal_pain
{
     label = "";
     position = (0 0);
     states = ("da" "ne");
}

node difficulty_in_swallowing
{
     label = "";
     position = (0 0);
     states = ("da" "ne");
}

node regurgitation
{
     label = "";
     position = (0 0);
     states = ("da" "ne");
}

node chest_tightness
{
     label = "";
     position = (0 0);
     states = ("da" "ne");
}

node hoarse_voice
{
     label = "";
     position = (0 0);
     states = ("da" "ne");
}

potential (gastroesophageal_reflux_disease_gerd)
{
 data = ( 0.2 0.8 );
}

potential (sharp_chest_pain | gastroesophageal_reflux_disease_gerd)
{
 data = (( 0.44 0.56 )
( 0.179109 0.820891 ));
}

potential (sharp_abdominal_pain | gastroesophageal_reflux_disease_gerd)
{
 data = (( 0.43 0.57 )
( 0.20425004 0.79574996 ));
}

potential (vomiting | gastroesophageal_reflux_disease_gerd)
{
 data = (( 0.33 0.66999996 )
( 0.13325465 0.86674535 ));
}

potential (heartburn | gastroesophageal_reflux_disease_gerd)
{
 data = (( 0.33 0.66999996 )
( 0.034140002 0.96586 ));
}

potential (cough | gastroesophageal_reflux_disease_gerd)
{
 data = (( 0.33 0.66999996 )
( 0.021367311 0.9786327 ));
}

potential (nausea | gastroesophageal_reflux_disease_gerd)
{
 data = (( 0.28 0.72 )
( 0.12576137 0.8742386 ));
}

potential (burning_abdominal_pain | gastroesophageal_reflux_disease_gerd)
{
 data = (( 0.21 0.79 )
( 0.024870003 0.97513 ));
}

potential (upper_abdominal_pain | gastroesophageal_reflux_disease_gerd)
{
 data = (( 0.16 0.84000003 )
( 0.018736001 0.981264 ));
}

potential (difficulty_in_swallowing | gastroesophageal_reflux_disease_gerd)
{
 data = (( 0.16 0.84000003 )
( 0.0 1.0 ));
}

potential (regurgitation | gastroesophageal_reflux_disease_gerd)
{
 data = (( 0.13 0.87 )
( 0.011666 0.988334 ));
}

potential (chest_tightness | gastroesophageal_reflux_disease_gerd)
{
 data = (( 0.11 0.89 )
( 0.086968996 0.913031 ));
}

potential (hoarse_voice | gastroesophageal_reflux_disease_gerd)
{
 data = (( 0.1 0.9 )
( 0.0 1.0 ));
}

