net
{
     node_size = (0 0);
     name = "hypertensive_heart_disease";
     UnBBayes_Color_Probabilistic_Description = "-256";
     UnBBayes_Color_Probabilistic_Explanation = "-16711936";
}

node hypertensive_heart_disease
{
     label = "";
     position = (0 0);
     states = ("da" "ne");
}

node palpitations
{
     label = "";
     position = (0 0);
     states = ("da" "ne");
}

node shortness_of_breath
{
     label = "";
     position = (0 0);
     states = ("da" "ne");
}

node sharp_chest_pain
{
     label = "";
     position = (0 0);
     states = ("da" "ne");
}

node difficulty_breathing
{
     label = "";
     position = (0 0);
     states = ("da" "ne");
}

node weakness
{
     label = "";
     position = (0 0);
     states = ("da" "ne");
}

node fatigue
{
     label = "";
     position = (0 0);
     states = ("da" "ne");
}

node chest_tightness
{
     label = "";
     position = (0 0);
     states = ("da" "ne");
}

node insomnia
{
     label = "";
     position = (0 0);
     states = ("da" "ne");
}

node heartburn
{
     label = "";
     position = (0 0);
     states = ("da" "ne");
}

node leg_swelling
{
     label = "";
     position = (0 0);
     states = ("da" "ne");
}

node fluid_retention
{
     label = "";
     position = (0 0);
     states = ("da" "ne");
}

node recent_pregnancy
{
     label = "";
     position = (0 0);
     states = ("da" "ne");
}

potential (hypertensive_heart_disease)
{
 data = ( 0.21 0.79 );
}

potential (palpitations | hypertensive_heart_disease)
{
 data = (( 0.48 0.52 )
( 0.031154001 0.968846 ));
}

potential (shortness_of_breath | hypertensive_heart_disease)
{
 data = (( 0.45 0.55 )
( 0.074946 0.925054 ));
}

potential (sharp_chest_pain | hypertensive_heart_disease)
{
 data = (( 0.44 0.56 )
( 0.174561 0.825439 ));
}

potential (difficulty_breathing | hypertensive_heart_disease)
{
 data = (( 0.42 0.58000004 )
( 0.02552 0.97448 ));
}

potential (weakness | hypertensive_heart_disease)
{
 data = (( 0.28 0.72 )
( 0.045581996 0.954418 ));
}

potential (fatigue | hypertensive_heart_disease)
{
 data = (( 0.26 0.74 )
( 0.052159 0.947841 ));
}

potential (chest_tightness | hypertensive_heart_disease)
{
 data = (( 0.23 0.77 )
( 0.060668997 0.939331 ));
}

potential (insomnia | hypertensive_heart_disease)
{
 data = (( 0.15 0.85 )
( 0.0 1.0 ));
}

potential (heartburn | hypertensive_heart_disease)
{
 data = (( 0.11 0.89 )
( 0.07704 0.92296 ));
}

potential (leg_swelling | hypertensive_heart_disease)
{
 data = (( 0.08 0.92 )
( 0.0 1.0 ));
}

potential (fluid_retention | hypertensive_heart_disease)
{
 data = (( 0.08 0.92 )
( 0.0 1.0 ));
}

potential (recent_pregnancy | hypertensive_heart_disease)
{
 data = (( 0.04 0.96 )
( 0.0019999999 0.998 ));
}

