net
{
     node_size = (0 0);
     name = "hyponatremia";
     UnBBayes_Color_Probabilistic_Description = "-256";
     UnBBayes_Color_Probabilistic_Explanation = "-16711936";
}

node hyponatremia
{
     label = "";
     position = (0 0);
     states = ("da" "ne");
}

node weakness
{
     label = "";
     position = (0 0);
     states = ("da" "ne");
}

node vomiting
{
     label = "";
     position = (0 0);
     states = ("da" "ne");
}

node nausea
{
     label = "";
     position = (0 0);
     states = ("da" "ne");
}

node shortness_of_breath
{
     label = "";
     position = (0 0);
     states = ("da" "ne");
}

node dizziness
{
     label = "";
     position = (0 0);
     states = ("da" "ne");
}

node sharp_abdominal_pain
{
     label = "";
     position = (0 0);
     states = ("da" "ne");
}

node sharp_chest_pain
{
     label = "";
     position = (0 0);
     states = ("da" "ne");
}

node headache
{
     label = "";
     position = (0 0);
     states = ("da" "ne");
}

node back_pain
{
     label = "";
     position = (0 0);
     states = ("da" "ne");
}

node fever
{
     label = "";
     position = (0 0);
     states = ("da" "ne");
}

node fainting
{
     label = "";
     position = (0 0);
     states = ("da" "ne");
}

node seizures
{
     label = "";
     position = (0 0);
     states = ("da" "ne");
}

potential (hyponatremia)
{
 data = ( 0.0172 0.9828 );
}

potential (weakness | hyponatremia)
{
 data = (( 0.55 0.45 )
( 0.09492199 0.905078 ));
}

potential (vomiting | hyponatremia)
{
 data = (( 0.53 0.47000003 )
( 0.19013864 0.80986136 ));
}

potential (nausea | hyponatremia)
{
 data = (( 0.48 0.52 )
( 0.17350537 0.82649463 ));
}

potential (shortness_of_breath | hyponatremia)
{
 data = (( 0.44 0.56 )
( 0.16187799 0.838122 ));
}

potential (dizziness | hyponatremia)
{
 data = (( 0.44 0.56 )
( 0.04998 0.95002 ));
}

potential (sharp_abdominal_pain | hyponatremia)
{
 data = (( 0.38 0.62 )
( 0.28371406 0.71628594 ));
}

potential (sharp_chest_pain | hyponatremia)
{
 data = (( 0.33 0.66999996 )
( 0.261433 0.738567 ));
}

potential (headache | hyponatremia)
{
 data = (( 0.33 0.66999996 )
( 0.018950041 0.98104995 ));
}

potential (back_pain | hyponatremia)
{
 data = (( 0.28 0.72 )
( 0.086680375 0.91331965 ));
}

potential (fever | hyponatremia)
{
 data = (( 0.28 0.72 )
( 0.114546955 0.88545305 ));
}

potential (fainting | hyponatremia)
{
 data = (( 0.25 0.75 )
( 0.0 1.0 ));
}

potential (seizures | hyponatremia)
{
 data = (( 0.23 0.77 )
( 0.0010203719 0.9989796 ));
}

