net
{
     node_size = (0 0);
     name = "multiple_sclerosis";
     UnBBayes_Color_Probabilistic_Description = "-256";
     UnBBayes_Color_Probabilistic_Explanation = "-16711936";
}

node multiple_sclerosis
{
     label = "";
     position = (0 0);
     states = ("da" "ne");
}

node fatigue
{
     label = "";
     position = (0 0);
     states = ("da" "ne");
}

node loss_of_sensation
{
     label = "";
     position = (0 0);
     states = ("da" "ne");
}

node headache
{
     label = "";
     position = (0 0);
     states = ("da" "ne");
}

node dizziness
{
     label = "";
     position = (0 0);
     states = ("da" "ne");
}

node problems_with_movement
{
     label = "";
     position = (0 0);
     states = ("da" "ne");
}

node weakness
{
     label = "";
     position = (0 0);
     states = ("da" "ne");
}

node leg_weakness
{
     label = "";
     position = (0 0);
     states = ("da" "ne");
}

node paresthesia
{
     label = "";
     position = (0 0);
     states = ("da" "ne");
}

node disturbance_of_memory
{
     label = "";
     position = (0 0);
     states = ("da" "ne");
}

node abnormal_involuntary_movements
{
     label = "";
     position = (0 0);
     states = ("da" "ne");
}

node leg_stiffness_or_tightness
{
     label = "";
     position = (0 0);
     states = ("da" "ne");
}

node focal_weakness
{
     label = "";
     position = (0 0);
     states = ("da" "ne");
}

potential (multiple_sclerosis)
{
 data = ( 2.9999999E-4 0.9997 );
}

potential (fatigue | multiple_sclerosis)
{
 data = (( 0.43 0.57 )
( 0.107934006 0.892066 ));
}

potential (loss_of_sensation | multiple_sclerosis)
{
 data = (( 0.42 0.58000004 )
( 7.2649994E-4 0.9992735 ));
}

potential (headache | multiple_sclerosis)
{
 data = (( 0.31 0.69 )
( 0.021046042 0.97895396 ));
}

potential (dizziness | multiple_sclerosis)
{
 data = (( 0.28 0.72 )
( 0.055995498 0.9440045 ));
}

potential (problems_with_movement | multiple_sclerosis)
{
 data = (( 0.27 0.73 )
( 0.004231 0.995769 ));
}

potential (weakness | multiple_sclerosis)
{
 data = (( 0.22 0.78 )
( 0.100832 0.899168 ));
}

potential (leg_weakness | multiple_sclerosis)
{
 data = (( 0.19 0.81 )
( 4.77E-4 0.999523 ));
}

potential (paresthesia | multiple_sclerosis)
{
 data = (( 0.16 0.84000003 )
( 0.0016689999 0.998331 ));
}

potential (disturbance_of_memory | multiple_sclerosis)
{
 data = (( 0.13 0.87 )
( 0.0040609995 0.995939 ));
}

potential (abnormal_involuntary_movements | multiple_sclerosis)
{
 data = (( 0.12 0.88 )
( 0.002748 0.997252 ));
}

potential (leg_stiffness_or_tightness | multiple_sclerosis)
{
 data = (( 0.12 0.88 )
( 3.5999998E-5 0.999964 ));
}

potential (focal_weakness | multiple_sclerosis)
{
 data = (( 0.11 0.89 )
( 0.0015100001 0.99849 ));
}

