net
{
     node_size = (0 0);
     name = "myocarditis";
     UnBBayes_Color_Probabilistic_Description = "-256";
     UnBBayes_Color_Probabilistic_Explanation = "-16711936";
}

node myocarditis
{
     label = "";
     position = (0 0);
     states = ("da" "ne");
}

node palpitations
{
     label = "";
     position = (0 0);
     states = ("da" "ne");
}

node ache_all_over
{
     label = "";
     position = (0 0);
     states = ("da" "ne");
}

node cough
{
     label = "";
     position = (0 0);
     states = ("da" "ne");
}

node chest_tightness
{
     label = "";
     position = (0 0);
     states = ("da" "ne");
}

node fever
{
     label = "";
     position = (0 0);
     states = ("da" "ne");
}

node sharp_chest_pain
{
     label = "";
     position = (0 0);
     states = ("da" "ne");
}

node weakness
{
     label = "";
     position = (0 0);
     states = ("da" "ne");
}

node diarrhea
{
     label = "";
     position = (0 0);
     states = ("da" "ne");
}

node headache
{
     label = "";
     position = (0 0);
     states = ("da" "ne");
}

node difficulty_breathing
{
     label = "";
     position = (0 0);
     states = ("da" "ne");
}

node dizziness
{
     label = "";
     position = (0 0);
     states = ("da" "ne");
}

node coughing_up_sputum
{
     label = "";
     position = (0 0);
     states = ("da" "ne");
}

potential (myocarditis)
{
 data = ( 0.0106 0.9894 );
}

potential (palpitations | myocarditis)
{
 data = (( 0.67 0.32999998 )
( 0.117750004 0.88225 ));
}

potential (ache_all_over | myocarditis)
{
 data = (( 0.56 0.44 )
( 0.009315504 0.9906845 ));
}

potential (cough | myocarditis)
{
 data = (( 0.56 0.44 )
( 0.07549532 0.9245047 ));
}

potential (chest_tightness | myocarditis)
{
 data = (( 0.56 0.44 )
( 0.097097 0.902903 ));
}

potential (fever | myocarditis)
{
 data = (( 0.56 0.44 )
( 0.10749096 0.89250904 ));
}

potential (sharp_chest_pain | myocarditis)
{
 data = (( 0.56 0.44 )
( 0.255237 0.744763 ));
}

potential (weakness | myocarditis)
{
 data = (( 0.38 0.62 )
( 0.096326 0.903674 ));
}

potential (diarrhea | myocarditis)
{
 data = (( 0.38 0.62 )
( 0.023477001 0.976523 ));
}

potential (headache | myocarditis)
{
 data = (( 0.38 0.62 )
( 0.016570043 0.98342997 ));
}

potential (difficulty_breathing | myocarditis)
{
 data = (( 0.38 0.62 )
( 0.105664 0.894336 ));
}

potential (dizziness | myocarditis)
{
 data = (( 0.38 0.62 )
( 0.049492 0.950508 ));
}

potential (coughing_up_sputum | myocarditis)
{
 data = (( 0.38 0.62 )
( 6.300001E-5 0.999937 ));
}

