net
{
     node_size = (0 0);
     name = "urinary_tract_infection";
     UnBBayes_Color_Probabilistic_Description = "-256";
     UnBBayes_Color_Probabilistic_Explanation = "-16711936";
}

node urinary_tract_infection
{
     label = "";
     position = (0 0);
     states = ("da" "ne");
}

node painful_urination
{
     label = "";
     position = (0 0);
     states = ("da" "ne");
}

node suprapubic_pain
{
     label = "";
     position = (0 0);
     states = ("da" "ne");
}

node sharp_abdominal_pain
{
     label = "";
     position = (0 0);
     states = ("da" "ne");
}

node frequent_urination
{
     label = "";
     position = (0 0);
     states = ("da" "ne");
}

node fever
{
     label = "";
     position = (0 0);
     states = ("da" "ne");
}

node vomiting
{
     label = "";
     position = (0 0);
     states = ("da" "ne");
}

node back_pain
{
     label = "";
     position = (0 0);
     states = ("da" "ne");
}

node nausea
{
     label = "";
     position = (0 0);
     states = ("da" "ne");
}

node blood_in_urine
{
     label = "";
     position = (0 0);
     states = ("da" "ne");
}

node side_pain
{
     label = "";
     position = (0 0);
     states = ("da" "ne");
}

node retention_of_urine
{
     label = "";
     position = (0 0);
     states = ("da" "ne");
}

node lower_abdominal_pain
{
     label = "";
     position = (0 0);
     states = ("da" "ne");
}

potential (urinary_tract_infection)
{
 data = ( 0.215 0.78499997 );
}

potential (painful_urination | urinary_tract_infection)
{
 data = (( 0.65 0.35000002 )
( 0.0 1.0 ));
}

potential (suprapubic_pain | urinary_tract_infection)
{
 data = (( 0.6 0.39999998 )
( 0.0 1.0 ));
}

potential (sharp_abdominal_pain | urinary_tract_infection)
{
 data = (( 0.6 0.39999998 )
( 0.26366898 0.736331 ));
}

potential (frequent_urination | urinary_tract_infection)
{
 data = (( 0.46 0.53999996 )
( 0.0 1.0 ));
}

potential (fever | urinary_tract_infection)
{
 data = (( 0.42 0.58000004 )
( 0.02345196 0.976548 ));
}

potential (vomiting | urinary_tract_infection)
{
 data = (( 0.4 0.6 )
( 0.16396664 0.83603334 ));
}

potential (back_pain | urinary_tract_infection)
{
 data = (( 0.36 0.64 )
( 0.013996372 0.98600364 ));
}

potential (nausea | urinary_tract_infection)
{
 data = (( 0.35 0.65 )
( 0.14958638 0.8504136 ));
}

potential (blood_in_urine | urinary_tract_infection)
{
 data = (( 0.33 0.66999996 )
( 1.7000001E-4 0.99983 ));
}

potential (side_pain | urinary_tract_infection)
{
 data = (( 0.31 0.69 )
( 0.0 1.0 ));
}

potential (retention_of_urine | urinary_tract_infection)
{
 data = (( 0.26 0.74 )
( 0.0165 0.9835 ));
}

potential (lower_abdominal_pain | urinary_tract_infection)
{
 data = (( 0.25 0.75 )
( 0.028499998 0.9715 ));
}

