net
{
     node_size = (0 0);
     name = "acute_pancreatitis";
     UnBBayes_Color_Probabilistic_Description = "-256";
     UnBBayes_Color_Probabilistic_Explanation = "-16711936";
}

node acute_pancreatitis
{
     label = "";
     position = (0 0);
     states = ("da" "ne");
}

node sharp_abdominal_pain
{
     label = "";
     position = (0 0);
     states = ("da" "ne");
}

node vomiting
{
     label = "";
     position = (0 0);
     states = ("da" "ne");
}

node nausea
{
     label = "";
     position = (0 0);
     states = ("da" "ne");
}

node upper_abdominal_pain
{
     label = "";
     position = (0 0);
     states = ("da" "ne");
}

node diarrhea
{
     label = "";
     position = (0 0);
     states = ("da" "ne");
}

node sharp_chest_pain
{
     label = "";
     position = (0 0);
     states = ("da" "ne");
}

node burning_abdominal_pain
{
     label = "";
     position = (0 0);
     states = ("da" "ne");
}

node back_pain
{
     label = "";
     position = (0 0);
     states = ("da" "ne");
}

node side_pain
{
     label = "";
     position = (0 0);
     states = ("da" "ne");
}

node abusing_alcohol
{
     label = "";
     position = (0 0);
     states = ("da" "ne");
}

node lower_body_pain
{
     label = "";
     position = (0 0);
     states = ("da" "ne");
}

node hemoptysis
{
     label = "";
     position = (0 0);
     states = ("da" "ne");
}

potential (acute_pancreatitis)
{
 data = ( 4.0E-4 0.9996 );
}

potential (sharp_abdominal_pain | acute_pancreatitis)
{
 data = (( 0.89 0.110000014 )
( 0.28989404 0.71010596 ));
}

potential (vomiting | acute_pancreatitis)
{
 data = (( 0.72 0.27999997 )
( 0.19896665 0.8010334 ));
}

potential (nausea | acute_pancreatitis)
{
 data = (( 0.65 0.35000002 )
( 0.18150136 0.8184986 ));
}

potential (upper_abdominal_pain | acute_pancreatitis)
{
 data = (( 0.49 0.51 )
( 0.05054 0.94946 ));
}

potential (diarrhea | acute_pancreatitis)
{
 data = (( 0.38 0.62 )
( 0.031381 0.968619 ));
}

potential (sharp_chest_pain | acute_pancreatitis)
{
 data = (( 0.37 0.63 )
( 0.266961 0.733039 ));
}

potential (burning_abdominal_pain | acute_pancreatitis)
{
 data = (( 0.3 0.7 )
( 0.066750005 0.93325 ));
}

potential (back_pain | acute_pancreatitis)
{
 data = (( 0.25 0.75 )
( 0.09139638 0.9086036 ));
}

potential (side_pain | acute_pancreatitis)
{
 data = (( 0.19 0.81 )
( 0.06665 0.93334997 ));
}

potential (abusing_alcohol | acute_pancreatitis)
{
 data = (( 0.14 0.86 )
( 0.01248 0.98752 ));
}

potential (lower_body_pain | acute_pancreatitis)
{
 data = (( 0.11 0.89 )
( 0.0 1.0 ));
}

potential (hemoptysis | acute_pancreatitis)
{
 data = (( 0.06 0.94 )
( 0.0 1.0 ));
}

