net
{
     node_size = (0 0);
     name = "bell_palsy";
     UnBBayes_Color_Probabilistic_Description = "-256";
     UnBBayes_Color_Probabilistic_Explanation = "-16711936";
}

node bell_palsy
{
     label = "";
     position = (0 0);
     states = ("da" "ne");
}

node focal_weakness
{
     label = "";
     position = (0 0);
     states = ("da" "ne");
}

node loss_of_sensation
{
     label = "";
     position = (0 0);
     states = ("da" "ne");
}

node symptoms_of_the_face
{
     label = "";
     position = (0 0);
     states = ("da" "ne");
}

node headache
{
     label = "";
     position = (0 0);
     states = ("da" "ne");
}

node facial_pain
{
     label = "";
     position = (0 0);
     states = ("da" "ne");
}

node weakness
{
     label = "";
     position = (0 0);
     states = ("da" "ne");
}

node peripheral_edema
{
     label = "";
     position = (0 0);
     states = ("da" "ne");
}

node symptoms_of_eye
{
     label = "";
     position = (0 0);
     states = ("da" "ne");
}

node paresthesia
{
     label = "";
     position = (0 0);
     states = ("da" "ne");
}

node diminished_vision
{
     label = "";
     position = (0 0);
     states = ("da" "ne");
}

node eyelid_lesion_or_rash
{
     label = "";
     position = (0 0);
     states = ("da" "ne");
}

node abnormal_involuntary_movements
{
     label = "";
     position = (0 0);
     states = ("da" "ne");
}

potential (bell_palsy)
{
 data = ( 0.001 0.999 );
}

potential (focal_weakness | bell_palsy)
{
 data = (( 0.82 0.18 )
( 7.2300003E-4 0.999277 ));
}

potential (loss_of_sensation | bell_palsy)
{
 data = (( 0.7 0.3 )
( 1.5249998E-4 0.9998475 ));
}

potential (symptoms_of_the_face | bell_palsy)
{
 data = (( 0.67 0.32999998 )
( 0.0 1.0 ));
}

potential (headache | bell_palsy)
{
 data = (( 0.51 0.49 )
( 0.020629043 0.97937095 ));
}

potential (facial_pain | bell_palsy)
{
 data = (( 0.39 0.61 )
( 0.0 1.0 ));
}

potential (weakness | bell_palsy)
{
 data = (( 0.28 0.72 )
( 0.100618 0.899382 ));
}

potential (peripheral_edema | bell_palsy)
{
 data = (( 0.24 0.76 )
( 0.009358001 0.990642 ));
}

potential (symptoms_of_eye | bell_palsy)
{
 data = (( 0.21 0.79 )
( 0.0 1.0 ));
}

potential (paresthesia | bell_palsy)
{
 data = (( 0.19 0.81 )
( 0.001527 0.998473 ));
}

potential (diminished_vision | bell_palsy)
{
 data = (( 0.19 0.81 )
( 0.0 1.0 ));
}

potential (eyelid_lesion_or_rash | bell_palsy)
{
 data = (( 0.16 0.84000003 )
( 0.0 1.0 ));
}

potential (abnormal_involuntary_movements | bell_palsy)
{
 data = (( 0.16 0.84000003 )
( 0.002624 0.997376 ));
}

