net
{
     node_size = (0 0);
     name = "cirrhosis";
     UnBBayes_Color_Probabilistic_Description = "-256";
     UnBBayes_Color_Probabilistic_Explanation = "-16711936";
}

node cirrhosis
{
     label = "";
     position = (0 0);
     states = ("da" "ne");
}

node sharp_abdominal_pain
{
     label = "";
     position = (0 0);
     states = ("da" "ne");
}

node shortness_of_breath
{
     label = "";
     position = (0 0);
     states = ("da" "ne");
}

node peripheral_edema
{
     label = "";
     position = (0 0);
     states = ("da" "ne");
}

node fatigue
{
     label = "";
     position = (0 0);
     states = ("da" "ne");
}

node upper_abdominal_pain
{
     label = "";
     position = (0 0);
     states = ("da" "ne");
}

node abdominal_distention
{
     label = "";
     position = (0 0);
     states = ("da" "ne");
}

node stomach_bloating
{
     label = "";
     position = (0 0);
     states = ("da" "ne");
}

node blood_in_stool
{
     label = "";
     position = (0 0);
     states = ("da" "ne");
}

node regurgitation
{
     label = "";
     position = (0 0);
     states = ("da" "ne");
}

node symptoms_of_the_kidneys
{
     label = "";
     position = (0 0);
     states = ("da" "ne");
}

node vomiting_blood
{
     label = "";
     position = (0 0);
     states = ("da" "ne");
}

node melena
{
     label = "";
     position = (0 0);
     states = ("da" "ne");
}

potential (cirrhosis)
{
 data = ( 0.0027 0.9973 );
}

potential (sharp_abdominal_pain | cirrhosis)
{
 data = (( 0.39 0.61 )
( 0.28919703 0.710803 ));
}

potential (shortness_of_breath | cirrhosis)
{
 data = (( 0.3 0.7 )
( 0.168636 0.83136404 ));
}

potential (peripheral_edema | cirrhosis)
{
 data = (( 0.24 0.76 )
( 0.00903 0.99097 ));
}

potential (fatigue | cirrhosis)
{
 data = (( 0.2 0.8 )
( 0.106354006 0.893646 ));
}

potential (upper_abdominal_pain | cirrhosis)
{
 data = (( 0.2 0.8 )
( 0.050196 0.949804 ));
}

potential (abdominal_distention | cirrhosis)
{
 data = (( 0.16 0.84000003 )
( 0.0 1.0 ));
}

potential (stomach_bloating | cirrhosis)
{
 data = (( 0.1 0.9 )
( 0.001985 0.998015 ));
}

potential (blood_in_stool | cirrhosis)
{
 data = (( 0.1 0.9 )
( 0.0 1.0 ));
}

potential (regurgitation | cirrhosis)
{
 data = (( 0.08 0.92 )
( 0.037449997 0.96255 ));
}

potential (symptoms_of_the_kidneys | cirrhosis)
{
 data = (( 0.05 0.95 )
( 0.00156 0.99844 ));
}

potential (vomiting_blood | cirrhosis)
{
 data = (( 0.05 0.95 )
( 0.01202 0.98798 ));
}

potential (melena | cirrhosis)
{
 data = (( 0.05 0.95 )
( 0.0068800002 0.99312 ));
}

