net
{
     node_size = (0 0);
     name = "ischemic_heart_disease";
     UnBBayes_Color_Probabilistic_Description = "-256";
     UnBBayes_Color_Probabilistic_Explanation = "-16711936";
}

node ischemic_heart_disease
{
     label = "";
     position = (0 0);
     states = ("da" "ne");
}

node sharp_chest_pain
{
     label = "";
     position = (0 0);
     states = ("da" "ne");
}

node shortness_of_breath
{
     label = "";
     position = (0 0);
     states = ("da" "ne");
}

node difficulty_breathing
{
     label = "";
     position = (0 0);
     states = ("da" "ne");
}

node palpitations
{
     label = "";
     position = (0 0);
     states = ("da" "ne");
}

node dizziness
{
     label = "";
     position = (0 0);
     states = ("da" "ne");
}

node fatigue
{
     label = "";
     position = (0 0);
     states = ("da" "ne");
}

node chest_tightness
{
     label = "";
     position = (0 0);
     states = ("da" "ne");
}

node peripheral_edema
{
     label = "";
     position = (0 0);
     states = ("da" "ne");
}

node lymphedemia
{
     label = "";
     position = (0 0);
     states = ("da" "ne");
}

node increased_heart_rate
{
     label = "";
     position = (0 0);
     states = ("da" "ne");
}

node muscle_pain
{
     label = "";
     position = (0 0);
     states = ("da" "ne");
}

node throat_feels_tight
{
     label = "";
     position = (0 0);
     states = ("da" "ne");
}

potential (ischemic_heart_disease)
{
 data = ( 0.053000003 0.947 );
}

potential (sharp_chest_pain | ischemic_heart_disease)
{
 data = (( 0.57 0.43 )
( 0.23149501 0.768505 ));
}

potential (shortness_of_breath | ischemic_heart_disease)
{
 data = (( 0.48 0.52 )
( 0.14367399 0.856326 ));
}

potential (difficulty_breathing | ischemic_heart_disease)
{
 data = (( 0.32 0.68 )
( 0.093265 0.906735 ));
}

potential (palpitations | ischemic_heart_disease)
{
 data = (( 0.31 0.69 )
( 0.108162 0.891838 ));
}

potential (dizziness | ischemic_heart_disease)
{
 data = (( 0.28 0.72 )
( 0.0412395 0.9587605 ));
}

potential (fatigue | ischemic_heart_disease)
{
 data = (( 0.27 0.73 )
( 0.093753 0.906247 ));
}

potential (chest_tightness | ischemic_heart_disease)
{
 data = (( 0.26 0.74 )
( 0.088993 0.911007 ));
}

potential (peripheral_edema | ischemic_heart_disease)
{
 data = (( 0.13 0.87 )
( 0.0027080001 0.997292 ));
}

potential (lymphedemia | ischemic_heart_disease)
{
 data = (( 0.08 0.92 )
( 0.0 1.0 ));
}

potential (increased_heart_rate | ischemic_heart_disease)
{
 data = (( 0.05 0.95 )
( 0.0 1.0 ));
}

potential (muscle_pain | ischemic_heart_disease)
{
 data = (( 0.05 0.95 )
( 7.04E-4 0.999296 ));
}

potential (throat_feels_tight | ischemic_heart_disease)
{
 data = (( 0.03 0.97 )
( 0.0 1.0 ));
}

