net
{
     node_size = (0 0);
     name = "polymyalgia_rheumatica";
     UnBBayes_Color_Probabilistic_Description = "-256";
     UnBBayes_Color_Probabilistic_Explanation = "-16711936";
}

node polymyalgia_rheumatica
{
     label = "";
     position = (0 0);
     states = ("da" "ne");
}

node fatigue
{
     label = "";
     position = (0 0);
     states = ("da" "ne");
}

node shoulder_pain
{
     label = "";
     position = (0 0);
     states = ("da" "ne");
}

node leg_pain
{
     label = "";
     position = (0 0);
     states = ("da" "ne");
}

node ache_all_over
{
     label = "";
     position = (0 0);
     states = ("da" "ne");
}

node sharp_chest_pain
{
     label = "";
     position = (0 0);
     states = ("da" "ne");
}

node muscle_pain
{
     label = "";
     position = (0 0);
     states = ("da" "ne");
}

node hip_pain
{
     label = "";
     position = (0 0);
     states = ("da" "ne");
}

node irregular_heartbeat
{
     label = "";
     position = (0 0);
     states = ("da" "ne");
}

node leg_weakness
{
     label = "";
     position = (0 0);
     states = ("da" "ne");
}

node stiffness_all_over
{
     label = "";
     position = (0 0);
     states = ("da" "ne");
}

node difficulty_in_swallowing
{
     label = "";
     position = (0 0);
     states = ("da" "ne");
}

node temper_problems
{
     label = "";
     position = (0 0);
     states = ("da" "ne");
}

potential (polymyalgia_rheumatica)
{
 data = ( 0.0032 0.9968 );
}

potential (fatigue | polymyalgia_rheumatica)
{
 data = (( 0.47 0.53 )
( 0.10655901 0.89344096 ));
}

potential (shoulder_pain | polymyalgia_rheumatica)
{
 data = (( 0.42 0.58000004 )
( 0.0 1.0 ));
}

potential (leg_pain | polymyalgia_rheumatica)
{
 data = (( 0.36 0.64 )
( 3.19812E-4 0.99968016 ));
}

potential (ache_all_over | polymyalgia_rheumatica)
{
 data = (( 0.36 0.64 )
( 0.015116503 0.9848835 ));
}

potential (sharp_chest_pain | polymyalgia_rheumatica)
{
 data = (( 0.3 0.7 )
( 0.260745 0.739255 ));
}

potential (muscle_pain | polymyalgia_rheumatica)
{
 data = (( 0.22 0.78 )
( 0.0026500002 0.99735 ));
}

potential (hip_pain | polymyalgia_rheumatica)
{
 data = (( 0.22 0.78 )
( 0.0 1.0 ));
}

potential (irregular_heartbeat | polymyalgia_rheumatica)
{
 data = (( 0.22 0.78 )
( 1.8000002E-4 0.99982 ));
}

potential (leg_weakness | polymyalgia_rheumatica)
{
 data = (( 0.12 0.88 )
( 1.4999999E-4 0.99985 ));
}

potential (stiffness_all_over | polymyalgia_rheumatica)
{
 data = (( 0.12 0.88 )
( 8.4E-5 0.999916 ));
}

potential (difficulty_in_swallowing | polymyalgia_rheumatica)
{
 data = (( 0.12 0.88 )
( 0.031999998 0.968 ));
}

potential (temper_problems | polymyalgia_rheumatica)
{
 data = (( 0.12 0.88 )
( 0.0 1.0 ));
}

